digraph Tree {
node [shape=box] ;
0 [label="X[0] <= 5.45\ngini = 0.665\nsamples = 120\nvalue = [43, 36, 41]"] ;
1 [label="X[1] <= 2.7\ngini = 0.172\nsamples = 43\nvalue = [39, 3, 1]"] ;
0 -> 1 [labeldistance=2.5, labelangle=45, headlabel="True"] ;
2 [label="X[1] <= 2.45\ngini = 0.625\nsamples = 4\nvalue = [1, 2, 1]"] ;
1 -> 2 ;
3 [label="X[0] <= 4.7\ngini = 0.444\nsamples = 3\nvalue = [1, 2, 0]"] ;
2 -> 3 ;
4 [label="gini = 0.0\nsamples = 1\nvalue = [1, 0, 0]"] ;
3 -> 4 ;
5 [label="gini = 0.0\nsamples = 2\nvalue = [0, 2, 0]"] ;
3 -> 5 ;
6 [label="gini = 0.0\nsamples = 1\nvalue = [0, 0, 1]"] ;
2 -> 6 ;
7 [label="X[0] <= 5.35\ngini = 0.05\nsamples = 39\nvalue = [38, 1, 0]"] ;
1 -> 7 ;
8 [label="gini = 0.0\nsamples = 34\nvalue = [34, 0, 0]"] ;
7 -> 8 ;
9 [label="X[1] <= 3.2\ngini = 0.32\nsamples = 5\nvalue = [4, 1, 0]"] ;
7 -> 9 ;
10 [label="gini = 0.0\nsamples = 1\nvalue = [0, 1, 0]"] ;
9 -> 10 ;
11 [label="gini = 0.0\nsamples = 4\nvalue = [4, 0, 0]"] ;
9 -> 11 ;
12 [label="X[0] <= 6.25\ngini = 0.544\nsamples = 77\nvalue = [4, 33, 40]"] ;
0 -> 12 [labeldistance=2.5, labelangle=-45, headlabel="False"] ;
13 [label="X[1] <= 3.6\ngini = 0.537\nsamples = 36\nvalue = [4, 22, 10]"] ;
12 -> 13 ;
14 [label="X[0] <= 5.75\ngini = 0.43\nsamples = 32\nvalue = [0, 22, 10]"] ;
13 -> 14 ;
15 [label="X[1] <= 2.85\ngini = 0.231\nsamples = 15\nvalue = [0, 13, 2]"] ;
14 -> 15 ;
16 [label="X[0] <= 5.55\ngini = 0.298\nsamples = 11\nvalue = [0, 9, 2]"] ;
15 -> 16 ;
17 [label="gini = 0.0\nsamples = 4\nvalue = [0, 4, 0]"] ;
16 -> 17 ;
18 [label="X[1] <= 2.55\ngini = 0.408\nsamples = 7\nvalue = [0, 5, 2]"] ;
16 -> 18 ;
19 [label="X[0] <= 5.65\ngini = 0.5\nsamples = 2\nvalue = [0, 1, 1]"] ;
18 -> 19 ;
20 [label="gini = 0.0\nsamples = 1\nvalue = [0, 1, 0]"] ;
19 -> 20 ;
21 [label="gini = 0.0\nsamples = 1\nvalue = [0, 0, 1]"] ;
19 -> 21 ;
22 [label="X[0] <= 5.65\ngini = 0.32\nsamples = 5\nvalue = [0, 4, 1]"] ;
18 -> 22 ;
23 [label="X[1] <= 2.75\ngini = 0.5\nsamples = 2\nvalue = [0, 1, 1]"] ;
22 -> 23 ;
24 [label="gini = 0.0\nsamples = 1\nvalue = [0, 1, 0]"] ;
23 -> 24 ;
25 [label="gini = 0.0\nsamples = 1\nvalue = [0, 0, 1]"] ;
23 -> 25 ;
26 [label="gini = 0.0\nsamples = 3\nvalue = [0, 3, 0]"] ;
22 -> 26 ;
27 [label="gini = 0.0\nsamples = 4\nvalue = [0, 4, 0]"] ;
15 -> 27 ;
28 [label="X[1] <= 3.1\ngini = 0.498\nsamples = 17\nvalue = [0, 9, 8]"] ;
14 -> 28 ;
29 [label="X[1] <= 2.95\ngini = 0.498\nsamples = 15\nvalue = [0, 7, 8]"] ;
28 -> 29 ;
30 [label="X[0] <= 5.9\ngini = 0.486\nsamples = 12\nvalue = [0, 7, 5]"] ;
29 -> 30 ;
31 [label="X[1] <= 2.75\ngini = 0.48\nsamples = 5\nvalue = [0, 2, 3]"] ;
30 -> 31 ;
32 [label="gini = 0.5\nsamples = 4\nvalue = [0, 2, 2]"] ;
31 -> 32 ;
33 [label="gini = 0.0\nsamples = 1\nvalue = [0, 0, 1]"] ;
31 -> 33 ;
34 [label="X[1] <= 2.65\ngini = 0.408\nsamples = 7\nvalue = [0, 5, 2]"] ;
30 -> 34 ;
35 [label="X[1] <= 2.4\ngini = 0.5\nsamples = 2\nvalue = [0, 1, 1]"] ;
34 -> 35 ;
36 [label="gini = 0.0\nsamples = 1\nvalue = [0, 1, 0]"] ;
35 -> 36 ;
37 [label="gini = 0.0\nsamples = 1\nvalue = [0, 0, 1]"] ;
35 -> 37 ;
38 [label="X[0] <= 6.15\ngini = 0.32\nsamples = 5\nvalue = [0, 4, 1]"] ;
34 -> 38 ;
39 [label="gini = 0.0\nsamples = 3\nvalue = [0, 3, 0]"] ;
38 -> 39 ;
40 [label="X[1] <= 2.85\ngini = 0.5\nsamples = 2\nvalue = [0, 1, 1]"] ;
38 -> 40 ;
41 [label="gini = 0.0\nsamples = 1\nvalue = [0, 0, 1]"] ;
40 -> 41 ;
42 [label="gini = 0.0\nsamples = 1\nvalue = [0, 1, 0]"] ;
40 -> 42 ;
43 [label="gini = 0.0\nsamples = 3\nvalue = [0, 0, 3]"] ;
29 -> 43 ;
44 [label="gini = 0.0\nsamples = 2\nvalue = [0, 2, 0]"] ;
28 -> 44 ;
45 [label="gini = 0.0\nsamples = 4\nvalue = [4, 0, 0]"] ;
13 -> 45 ;
46 [label="X[0] <= 7.05\ngini = 0.393\nsamples = 41\nvalue = [0, 11, 30]"] ;
12 -> 46 ;
47 [label="X[0] <= 6.95\ngini = 0.451\nsamples = 32\nvalue = [0, 11, 21]"] ;
46 -> 47 ;
48 [label="X[0] <= 6.85\ngini = 0.437\nsamples = 31\nvalue = [0, 10, 21]"] ;
47 -> 48 ;
49 [label="X[0] <= 6.55\ngini = 0.459\nsamples = 28\nvalue = [0, 10, 18]"] ;
48 -> 49 ;
50 [label="X[0] <= 6.45\ngini = 0.375\nsamples = 16\nvalue = [0, 4, 12]"] ;
49 -> 50 ;
51 [label="X[1] <= 2.85\ngini = 0.444\nsamples = 12\nvalue = [0, 4, 8]"] ;
50 -> 51 ;
52 [label="X[1] <= 2.6\ngini = 0.278\nsamples = 6\nvalue = [0, 1, 5]"] ;
51 -> 52 ;
53 [label="gini = 0.5\nsamples = 2\nvalue = [0, 1, 1]"] ;
52 -> 53 ;
54 [label="gini = 0.0\nsamples = 4\nvalue = [0, 0, 4]"] ;
52 -> 54 ;
55 [label="X[1] <= 3.35\ngini = 0.5\nsamples = 6\nvalue = [0, 3, 3]"] ;
51 -> 55 ;
56 [label="X[1] <= 3.25\ngini = 0.48\nsamples = 5\nvalue = [0, 3, 2]"] ;
55 -> 56 ;
57 [label="X[0] <= 6.35\ngini = 0.5\nsamples = 4\nvalue = [0, 2, 2]"] ;
56 -> 57 ;
58 [label="gini = 0.0\nsamples = 1\nvalue = [0, 0, 1]"] ;
57 -> 58 ;
59 [label="X[1] <= 3.05\ngini = 0.444\nsamples = 3\nvalue = [0, 2, 1]"] ;
57 -> 59 ;
60 [label="gini = 0.0\nsamples = 1\nvalue = [0, 1, 0]"] ;
59 -> 60 ;
61 [label="gini = 0.5\nsamples = 2\nvalue = [0, 1, 1]"] ;
59 -> 61 ;
62 [label="gini = 0.0\nsamples = 1\nvalue = [0, 1, 0]"] ;
56 -> 62 ;
63 [label="gini = 0.0\nsamples = 1\nvalue = [0, 0, 1]"] ;
55 -> 63 ;
64 [label="gini = 0.0\nsamples = 4\nvalue = [0, 0, 4]"] ;
50 -> 64 ;
65 [label="X[1] <= 3.15\ngini = 0.5\nsamples = 12\nvalue = [0, 6, 6]"] ;
49 -> 65 ;
66 [label="X[1] <= 2.65\ngini = 0.444\nsamples = 9\nvalue = [0, 6, 3]"] ;
65 -> 66 ;
67 [label="gini = 0.0\nsamples = 1\nvalue = [0, 0, 1]"] ;
66 -> 67 ;
68 [label="X[0] <= 6.65\ngini = 0.375\nsamples = 8\nvalue = [0, 6, 2]"] ;
66 -> 68 ;
69 [label="gini = 0.0\nsamples = 2\nvalue = [0, 2, 0]"] ;
68 -> 69 ;
70 [label="X[1] <= 3.05\ngini = 0.444\nsamples = 6\nvalue = [0, 4, 2]"] ;
68 -> 70 ;
71 [label="X[1] <= 2.9\ngini = 0.5\nsamples = 4\nvalue = [0, 2, 2]"] ;
70 -> 71 ;
72 [label="gini = 0.0\nsamples = 1\nvalue = [0, 1, 0]"] ;
71 -> 72 ;
73 [label="X[0] <= 6.75\ngini = 0.444\nsamples = 3\nvalue = [0, 1, 2]"] ;
71 -> 73 ;
74 [label="gini = 0.5\nsamples = 2\nvalue = [0, 1, 1]"] ;
73 -> 74 ;
75 [label="gini = 0.0\nsamples = 1\nvalue = [0, 0, 1]"] ;
73 -> 75 ;
76 [label="gini = 0.0\nsamples = 2\nvalue = [0, 2, 0]"] ;
70 -> 76 ;
77 [label="gini = 0.0\nsamples = 3\nvalue = [0, 0, 3]"] ;
65 -> 77 ;
78 [label="gini = 0.0\nsamples = 3\nvalue = [0, 0, 3]"] ;
48 -> 78 ;
79 [label="gini = 0.0\nsamples = 1\nvalue = [0, 1, 0]"] ;
47 -> 79 ;
80 [label="gini = 0.0\nsamples = 9\nvalue = [0, 0, 9]"] ;
46 -> 80 ;
}